{
  "format_version": 1,
  "input_size": 10,
  "hidden_size": 12,
  "learning_rate": 0.08,
  "w1": [
    [
      -0.2609253785170554,
      -0.4857766654362254,
      0.1267183324586335,
      -0.696232148827558,
      0.03203873824068959,
      -0.22220780583479388,
      -0.5199492987281488,
      -0.12010684548150541,
      -0.5695201482498714,
      -0.1682626251482205
    ],
    [
      -0.6696842092265656,
      -0.6286851382321501,
      -0.21736557645729357,
      0.34826142838504365,
      -0.6027504740220603,
      -0.4554669969487263,
      0.20608470100041112,
      0.4809172554386499,
      0.09463258778106559,
      -0.2637552832777091
    ],
    [
      0.5384599415595397,
      -0.7327240409896286,
      0.22413712786253423,
      -0.533616374304785,
      -0.6525672285369386,
      -0.6686580766185203,
      -0.2501389768494202,
      0.14278497465042345,
      -0.45220262797834776,
      -0.07665930695241617
    ],
    [
      0.2425459911401653,
      -0.1294453888786882,
      0.1465091391744074,
      -0.5835389320168687,
      -0.5743016713938431,
      -0.39014238423388,
      0.3215603789185182,
      -0.07464143782477446,
      -0.23942641686583085,
      0.10780517973751363
    ],
    [
      -0.24469007343376153,
      -0.4515050103613015,
      0.14915512202732542,
      0.05484006237879815,
      -0.5553726131531317,
      -0.06692841691995052,
      -0.04076346868925426,
      0.255319596799692,
      0.2184394073625955,
      -0.5092005030424863
    ],
    [
      0.4674744282646202,
      -0.693135683135605,
      -0.47841303890277587,
      0.040885497144381715,
      -0.7235981923734368,
      -0.21235814362404404,
      -0.6297282647168824,
      -0.1494732515953565,
      0.3059813168406509,
      -0.158435905044106
    ],
    [
      0.5490922715742618,
      -0.26954336199334017,
      0.3849287673843936,
      0.2540873232880204,
      0.1627280438502144,
      -0.008013589159896268,
      0.32209166548780555,
      0.7937588810992475,
      -0.11974645752855818,
      0.3342473304180065
    ],
    [
      -0.7164175741157559,
      0.18289885683373108,
      0.054405557588717,
      0.5705840866636596,
      0.3425009910940769,
      -0.39506201254117906,
      -0.22058965649073844,
      0.09577466242083033,
      -0.730136099934415,
      -0.15672136118508345
    ],
    [
      -0.48409527440418004,
      -0.5325485652521637,
      -0.7734599251055422,
      0.2545522954906735,
      -0.5635409178192127,
      -0.38575736948707035,
      0.0016405144261837919,
      0.3402583307710958,
      -0.48332916263400993,
      -0.18341409803270536
    ],
    [
      0.0607027648499111,
      0.5292100289068974,
      0.4632686040635778,
      0.5504829397075798,
      -0.31181490580550625,
      -0.10704404083240185,
      -0.2783979216775039,
      0.5977268227163519,
      0.6209689688648891,
      -0.4359999181640771
    ],
    [
      -0.49080405593916254,
      -0.3449270493256178,
      -0.6352590001338849,
      -0.2632762997636296,
      0.07337670093812965,
      -0.40558944367826005,
      -0.3872937288349061,
      -0.4493640834248672,
      0.049421610342517686,
      -0.058251102933755836
    ],
    [
      0.6354617689820806,
      0.2532033310896478,
      0.061791920062379324,
      0.21561547410740314,
      0.25819837675994556,
      -0.6200449829883693,
      0.4494434534919441,
      0.47823799148852697,
      0.4509399374948082,
      0.4671380852733802
    ]
  ],
  "b1": [
    0.20358321036981794,
    0.05067075822692428,
    0.15079483684185785,
    0.025839855233689733,
    -0.03535700526170492,
    0.12783953650057306,
    -0.2914463614361584,
    -0.03927425692881403,
    0.2817029313163008,
    -0.09592763681815095,
    0.6543525402503062,
    -0.19278795750850675
  ],
  "w2": [
    -0.8237166399074803,
    -0.5196614509842702,
    -0.9268445135117266,
    -0.3234559439799276,
    -0.4718849358229454,
    -0.9855765696757876,
    1.0160821333530288,
    -0.1541979277663337,
    -0.994396360424758,
    0.5345831805906228,
    -1.71800231340886,
    0.7041545439330661
  ],
  "b2": 0.40326249273859055
}