{
  "format_version": 3,
  "input_size": 20,
  "hidden_size": 12,
  "learning_rate": 0.08,
  "w1": [
    [
      -0.2520886475236637,
      -0.509594182244096,
      0.02197317476228111,
      -0.5498763617222915,
      0.21516755116707154,
      -0.1413114657379986,
      -0.5270507117220574,
      0.013170149669054828,
      -0.5455511269943638,
      -0.024241613503209088,
      -0.64361504905989,
      -0.5686250158026224,
      -0.22116921894318267,
      0.4190093783430779,
      -0.17887797674514969,
      -0.3767956573721802,
      0.1285252725803614,
      0.41902520750757727,
      -0.07746234402693632,
      -0.08370846568123007
    ],
    [
      0.6325900350024797,
      -0.7147859437100488,
      0.27835921775830424,
      -0.2579715927026865,
      -0.35169322855764906,
      -0.5191331186694987,
      -0.1839604515534127,
      0.41227702031295116,
      -0.42248941935998646,
      0.14545073230499087,
      0.11406697658061406,
      -0.20749163239958687,
      -0.05375598686777912,
      -0.6768314781424857,
      -0.2410028078816042,
      -0.41581170382750954,
      0.20360070613650008,
      -0.3548121610353684,
      -0.4974142297811119,
      0.12441612565500003
    ],
    [
      -0.2262422398737228,
      -0.5375893970743899,
      -0.028273593960546912,
      0.24493045846041345,
      -0.32423940594978606,
      -0.010477591045425139,
      0.046068799469197154,
      0.32947014537263203,
      0.2746544979481598,
      -0.3718908293496416,
      0.3396259399677035,
      -0.7029233880569987,
      -0.41215404866386,
      0.08636421644496128,
      -0.19433298695263987,
      -0.09398752364227665,
      -0.830918031933052,
      -0.18534677920166612,
      -0.03876633543297645,
      -0.0535862330120486
    ],
    [
      0.6173463884510041,
      -0.13189856750293966,
      0.5285099287659497,
      0.03535996835039168,
      -0.0414178679825467,
      -0.0651566656361586,
      0.3537544478136588,
      0.6526320575424329,
      -0.12358319459983552,
      0.1595558673329008,
      -0.46692450433662397,
      0.33217073891927223,
      0.3242254055152212,
      0.7959544162482932,
      0.047307952387729224,
      -0.2918415624738771,
      -0.08252998964730965,
      0.5465534505361593,
      -0.42045156542871365,
      -0.023968541346079553
    ],
    [
      -0.5348451415482225,
      -0.6385769376667783,
      -0.8274211844427799,
      0.37253682452608006,
      -0.48964952163825176,
      -0.38539767393472196,
      -0.14950976114198955,
      0.4247675626046438,
      -0.6022559051195077,
      -0.13623693161684217,
      -0.08240972514733501,
      0.47375133630990773,
      0.30793921178892075,
      0.3901148246165324,
      -0.15684510925413697,
      -0.1504480333325614,
      -0.277775683069131,
      0.31463443568066796,
      0.42859055936250723,
      -0.5498523471900715
    ],
    [
      -0.44059195013690716,
      -0.3608424504033768,
      -0.3492737376073429,
      -0.009717478566196197,
      0.1241997801522903,
      -0.32365516919521886,
      -0.6859811075737332,
      -0.10237312597656621,
      -0.15818473426479945,
      0.12134081502795398,
      0.6410684477920138,
      0.2729678416131886,
      0.028840708420075963,
      0.16796957472976703,
      0.23352003479688788,
      -0.6028404786866782,
      0.575603872135126,
      0.42411318643888213,
      0.5465517878545713,
      0.43536203991352057
    ],
    [
      -0.07821486030920688,
      -0.05420714950215415,
      -0.5506493189765154,
      0.27384706840881917,
      -0.5228231552268744,
      -0.5268994168352156,
      -0.3094098283212791,
      -0.40222721014027046,
      -0.1314537729470451,
      -0.5517114910127663,
      -0.6559014298736119,
      -0.4267322625238689,
      -0.5214317989926869,
      -0.09393691352388792,
      -0.521414118865604,
      0.5807077544031036,
      0.21010821363189452,
      -0.5027181066673072,
      -0.33670705011232593,
      -0.1586094205129728
    ],
    [
      -0.007600277260379742,
      -0.2959705222513302,
      0.7887455719705978,
      0.7560912268125294,
      0.012327116623648772,
      0.1251000091533762,
      -0.4816816665291882,
      -0.38563673289793027,
      -0.12011327958308303,
      -0.22671356231712583,
      0.7177483764916838,
      -0.30444568637942937,
      -0.41581837908619745,
      0.873266875946968,
      -0.045304261847301686,
      -0.3734256066125776,
      0.2600649859470786,
      -0.3335587061520301,
      0.34207764673713803,
      0.8341744659199851
    ],
    [
      0.5622489338213184,
      0.35316412675234304,
      -0.21752231389912474,
      -0.16783148851941812,
      -0.4879239314115656,
      0.4093406510941338,
      0.03771517130175881,
      0.4351800652051914,
      -0.20044498095782046,
      -0.3479921519982971,
      0.49011029590886834,
      0.7186905883936023,
      0.5578990262682925,
      0.48478702606742996,
      0.3271659751294569,
      0.379320705748397,
      -0.32562019730978975,
      0.15371902566389822,
      -0.09956695531792757,
      -0.6096696187015507
    ],
    [
      -0.6068175126734331,
      -0.22368158032607519,
      -0.18972252484818822,
      0.28139398339460153,
      0.6515010357249781,
      -0.03826993296789804,
      0.6355901689754448,
      0.7593519961692351,
      0.6519061193478917,
      -0.1880714869862191,
      -0.2579964915051917,
      -0.32126439579405436,
      -0.28694694508152885,
      -0.3132034687730683,
      0.10547706932931486,
      0.5865478089983754,
      0.5518337247223289,
      0.12862428474011992,
      0.3676808489763248,
      0.46947275695219837
    ],
    [
      -0.5454428670454123,
      0.26606853175244316,
      0.7040883197074336,
      0.34145034402489144,
      0.27625842300972636,
      -0.03151069787477232,
      -0.4971509815015557,
      0.3961663250250511,
      -0.23246263093686367,
      0.4197829280520723,
      0.6999186943691684,
      -0.13240554946613758,
      -0.08711012862988513,
      0.6397334567676558,
      0.12098372621766619,
      -0.4314136431252921,
      -0.4590661096681404,
      -0.3249008818869453,
      0.6893900092968698,
      0.4489315641218949
    ],
    [
      -0.58661038291934,
      0.321306827271089,
      0.48246343388922674,
      0.1644190660871793,
      -0.22391925725873824,
      -0.00991305394191746,
      -0.549382473730681,
      -0.7784402907678203,
      0.5475967199084719,
      0.0926529518971411,
      -0.08762628667426599,
      0.5298532142229313,
      -0.20925801527484436,
      0.4175297950517017,
      0.5452429583009966,
      -0.4939743369010696,
      -0.44507821704927075,
      -0.49830254162608295,
      -0.5474780253158927,
      0.006917681921852744
    ]
  ],
  "b1": [
    0.44497697909166417,
    0.3795235133380776,
    0.321452719247167,
    -0.5201166455720345,
    0.16453017852736251,
    0.003951574102995501,
    0.23568895630503928,
    -0.09109461650624147,
    -0.08581549941165488,
    -0.10648410842908988,
    -0.2085394363034297,
    0.06370614500304062
  ],
  "w2": [
    -1.1861525059060576,
    -1.106178895796772,
    -1.0776265521095256,
    1.0697525213264478,
    -0.6779590691656717,
    0.11211560543807693,
    -0.8088901992014975,
    0.485487882870944,
    0.43846728210199515,
    0.3860249734094095,
    0.6108119816301381,
    -0.6180530145770651
  ],
  "b2": -0.8299683748880341
}